<?xml version="1.0"?>
<opencv_storage>
<stage7>
  <maxWeakCount>8</maxWeakCount>
  <stageThreshold>-9.7120618820190430e-01</stageThreshold>
  <weakClassifiers>
    <_>
      <internalNodes>
        0 -1 31907 -5.7820126414299011e-02</internalNodes>
      <leafValues>
        8.6666667461395264e-01 -5.8399999141693115e-01</leafValues></_>
    <_>
      <internalNodes>
        0 -1 32038 1.4949466101825237e-02</internalNodes>
      <leafValues>
        -3.5656362771987915e-01 7.2475332021713257e-01</leafValues></_>
    <_>
      <internalNodes>
        0 -1 523 -4.8226549552055076e-05</internalNodes>
      <leafValues>
        -1. 2.7604278922080994e-01</leafValues></_>
    <_>
      <internalNodes>
        0 -1 24708 1.0552856838330626e-03</internalNodes>
      <leafValues>
        -4.2094925045967102e-01 6.4122372865676880e-01</leafValues></_>
    <_>
      <internalNodes>
        0 -1 19584 -1.8239321652799845e-03</internalNodes>
      <leafValues>
        8.2804685831069946e-01 -2.3371382057666779e-01</leafValues></_>
    <_>
      <internalNodes>
        0 -1 14046 -7.3725148104131222e-03</internalNodes>
      <leafValues>
        7.9211872816085815e-01 -2.6989841461181641e-01</leafValues></_>
    <_>
      <internalNodes>
        0 -1 22056 7.5006093829870224e-03</internalNodes>
      <leafValues>
        -2.3947326838970184e-01 8.5560327768325806e-01</leafValues></_>
    <_>
      <internalNodes>
        0 -1 30287 7.0285568945109844e-03</internalNodes>
      <leafValues>
        -2.0441125333309174e-01 9.1560155153274536e-01</leafValues></_></weakClassifiers></stage7>
</opencv_storage>
